digraph Tree {
node [shape=box, style="filled, rounded", color="black", fontname=helvetica] ;
edge [fontname=helvetica] ;
0 [label="dwl_bytes_avg <= -0.05\nentropy = 2.31\nsamples = 92\nvalue = [22, 32, 29, 31, 26]\nclass = 360p", fillcolor="#fefffd"] ;
1 [label="dwl_bytes_std <= -0.74\nentropy = 1.77\nsamples = 55\nvalue = [22, 29, 29, 4, 0]\nclass = 360p", fillcolor="#ffffff"] ;
0 -> 1 [labeldistance=2.5, labelangle=45, headlabel="True"] ;
2 [label="dwl_peak_prom <= -0.87\nentropy = 0.98\nsamples = 25\nvalue = [21, 15, 0, 0, 0]\nclass = 240p", fillcolor="#f8dbc6"] ;
1 -> 2 ;
3 [label="dwl_bytes_std <= -1.27\nentropy = 0.65\nsamples = 18\nvalue = [20, 4, 0, 0, 0]\nclass = 240p", fillcolor="#ea9a61"] ;
2 -> 3 ;
4 [label="entropy = 0.0\nsamples = 3\nvalue = [0, 4, 0, 0, 0]\nclass = 360p", fillcolor="#7be539"] ;
3 -> 4 ;
5 [label="entropy = 0.0\nsamples = 15\nvalue = [20, 0, 0, 0, 0]\nclass = 240p", fillcolor="#e58139"] ;
3 -> 5 ;
6 [label="upl_bytes_std <= -0.67\nentropy = 0.41\nsamples = 7\nvalue = [1, 11, 0, 0, 0]\nclass = 360p", fillcolor="#87e74b"] ;
2 -> 6 ;
7 [label="entropy = 0.0\nsamples = 6\nvalue = [0, 11, 0, 0, 0]\nclass = 360p", fillcolor="#7be539"] ;
6 -> 7 ;
8 [label="entropy = 0.0\nsamples = 1\nvalue = [1, 0, 0, 0, 0]\nclass = 240p", fillcolor="#e58139"] ;
6 -> 8 ;
9 [label="dwl_bytes_avg <= -0.63\nentropy = 1.37\nsamples = 30\nvalue = [1, 14, 29, 4, 0]\nclass = 480p", fillcolor="#a8f4e5"] ;
1 -> 9 ;
10 [label="dwl_bytes_avg <= -0.73\nentropy = 0.86\nsamples = 4\nvalue = [0, 5, 0, 2, 0]\nclass = 360p", fillcolor="#b0ef88"] ;
9 -> 10 ;
11 [label="entropy = 0.0\nsamples = 1\nvalue = [0, 0, 0, 2, 0]\nclass = 720p", fillcolor="#3c39e5"] ;
10 -> 11 ;
12 [label="entropy = 0.0\nsamples = 3\nvalue = [0, 5, 0, 0, 0]\nclass = 360p", fillcolor="#7be539"] ;
10 -> 12 ;
13 [label="dwl_bytes_std <= 0.37\nentropy = 1.18\nsamples = 26\nvalue = [1, 9, 29, 2, 0]\nclass = 480p", fillcolor="#83efdb"] ;
9 -> 13 ;
14 [label="dwl_bytes_std <= -0.35\nentropy = 0.83\nsamples = 24\nvalue = [1, 6, 29, 0, 0]\nclass = 480p", fillcolor="#67ebd3"] ;
13 -> 14 ;
15 [label="dwl_peak_prom <= -0.64\nentropy = 0.41\nsamples = 8\nvalue = [1, 0, 11, 0, 0]\nclass = 480p", fillcolor="#4be7ca"] ;
14 -> 15 ;
16 [label="dwl_bytes_avg <= -0.51\nentropy = 0.81\nsamples = 3\nvalue = [1, 0, 3, 0, 0]\nclass = 480p", fillcolor="#7beed8"] ;
15 -> 16 ;
17 [label="entropy = 0.0\nsamples = 2\nvalue = [0, 0, 3, 0, 0]\nclass = 480p", fillcolor="#39e5c5"] ;
16 -> 17 ;
18 [label="entropy = 0.0\nsamples = 1\nvalue = [1, 0, 0, 0, 0]\nclass = 240p", fillcolor="#e58139"] ;
16 -> 18 ;
19 [label="entropy = 0.0\nsamples = 5\nvalue = [0, 0, 8, 0, 0]\nclass = 480p", fillcolor="#39e5c5"] ;
15 -> 19 ;
20 [label="dwl_bytes_std <= -0.29\nentropy = 0.81\nsamples = 16\nvalue = [0, 6, 18, 0, 0]\nclass = 480p", fillcolor="#7beed8"] ;
14 -> 20 ;
21 [label="entropy = 0.0\nsamples = 2\nvalue = [0, 3, 0, 0, 0]\nclass = 360p", fillcolor="#7be539"] ;
20 -> 21 ;
22 [label="dwl_peak_prom <= -0.64\nentropy = 0.59\nsamples = 14\nvalue = [0, 3, 18, 0, 0]\nclass = 480p", fillcolor="#5ae9cf"] ;
20 -> 22 ;
23 [label="entropy = 0.0\nsamples = 2\nvalue = [0, 2, 0, 0, 0]\nclass = 360p", fillcolor="#7be539"] ;
22 -> 23 ;
24 [label="dwl_bytes_avg <= -0.16\nentropy = 0.3\nsamples = 12\nvalue = [0, 1, 18, 0, 0]\nclass = 480p", fillcolor="#44e6c8"] ;
22 -> 24 ;
25 [label="entropy = 0.0\nsamples = 11\nvalue = [0, 0, 18, 0, 0]\nclass = 480p", fillcolor="#39e5c5"] ;
24 -> 25 ;
26 [label="entropy = 0.0\nsamples = 1\nvalue = [0, 1, 0, 0, 0]\nclass = 360p", fillcolor="#7be539"] ;
24 -> 26 ;
27 [label="dwl_bytes_avg <= -0.12\nentropy = 0.97\nsamples = 2\nvalue = [0, 3, 0, 2, 0]\nclass = 360p", fillcolor="#d3f6bd"] ;
13 -> 27 ;
28 [label="entropy = 0.0\nsamples = 1\nvalue = [0, 0, 0, 2, 0]\nclass = 720p", fillcolor="#3c39e5"] ;
27 -> 28 ;
29 [label="entropy = 0.0\nsamples = 1\nvalue = [0, 3, 0, 0, 0]\nclass = 360p", fillcolor="#7be539"] ;
27 -> 29 ;
30 [label="upl_bytes_std <= 0.67\nentropy = 1.25\nsamples = 37\nvalue = [0, 3, 0, 27, 26]\nclass = 720p", fillcolor="#f8f8fe"] ;
0 -> 30 [labeldistance=2.5, labelangle=-45, headlabel="False"] ;
31 [label="upl_peak_std <= 0.86\nentropy = 0.25\nsamples = 18\nvalue = [0, 0, 0, 23, 1]\nclass = 720p", fillcolor="#4442e6"] ;
30 -> 31 ;
32 [label="entropy = 0.0\nsamples = 17\nvalue = [0, 0, 0, 23, 0]\nclass = 720p", fillcolor="#3c39e5"] ;
31 -> 32 ;
33 [label="entropy = 0.0\nsamples = 1\nvalue = [0, 0, 0, 0, 1]\nclass = 1080p", fillcolor="#e539c0"] ;
31 -> 33 ;
34 [label="dwl_peak_prom <= 0.44\nentropy = 0.97\nsamples = 19\nvalue = [0, 3, 0, 4, 25]\nclass = 1080p", fillcolor="#ec6ad0"] ;
30 -> 34 ;
35 [label="dwl_bytes_avg <= 0.55\nentropy = 1.0\nsamples = 2\nvalue = [0, 3, 0, 3, 0]\nclass = 360p", fillcolor="#ffffff"] ;
34 -> 35 ;
36 [label="entropy = 0.0\nsamples = 1\nvalue = [0, 3, 0, 0, 0]\nclass = 360p", fillcolor="#7be539"] ;
35 -> 36 ;
37 [label="entropy = 0.0\nsamples = 1\nvalue = [0, 0, 0, 3, 0]\nclass = 720p", fillcolor="#3c39e5"] ;
35 -> 37 ;
38 [label="upl_bytes_std <= 0.93\nentropy = 0.24\nsamples = 17\nvalue = [0, 0, 0, 1, 25]\nclass = 1080p", fillcolor="#e641c3"] ;
34 -> 38 ;
39 [label="upl_peak_std <= -0.5\nentropy = 0.72\nsamples = 4\nvalue = [0, 0, 0, 1, 4]\nclass = 1080p", fillcolor="#ec6ad0"] ;
38 -> 39 ;
40 [label="entropy = 0.0\nsamples = 3\nvalue = [0, 0, 0, 0, 4]\nclass = 1080p", fillcolor="#e539c0"] ;
39 -> 40 ;
41 [label="entropy = 0.0\nsamples = 1\nvalue = [0, 0, 0, 1, 0]\nclass = 720p", fillcolor="#3c39e5"] ;
39 -> 41 ;
42 [label="entropy = 0.0\nsamples = 13\nvalue = [0, 0, 0, 0, 21]\nclass = 1080p", fillcolor="#e539c0"] ;
38 -> 42 ;
}